\data\
ngram 1=8
ngram 2=12
ngram 3=10

\1-grams:
-1.146128	<unk>	0
0	<s>	-0.30103
-0.81033593	</s>	0
-0.81033593	a	-0.30103
-0.81033593	e	-0.30103
-0.81033593	i	-0.30103
-0.81033593	o	-0.30103
-0.81033593	u	-0.30103

\2-grams:
-0.4849466	a </s>	0
-0.4849466	u </s>	0
-0.4849466	<s> a	-0.30103
-0.4849466	e a	-0.30103
-0.4849466	a e	-0.30103
-0.4849466	i e	-0.30103
-0.4849466	e i	-0.30103
-0.4849466	o i	-0.30103
-0.4849466	i o	-0.30103
-0.4849466	u o	-0.30103
-0.4849466	<s> u	-0.30103
-0.4849466	o u	-0.30103

\3-grams:
-0.17803444	e a </s>
-0.17803444	o u </s>
-0.17803444	i e a
-0.17803444	<s> a e
-0.17803444	o i e
-0.17803444	a e i
-0.17803444	u o i
-0.17803444	e i o
-0.17803444	<s> u o
-0.17803444	i o u

\end\
