\data\
ngram 1=9
ngram 2=11
ngram 3=10

\1-grams:
-1.0598761	<unk>	0
0	<s>	-0.30103
-1.0598761	</s>	0
-0.8305393	I	-0.30103
-0.8305393	like	-0.30103
-0.8305393	apple	-0.30103
-0.93024224	you	-0.30103
-0.93024224	love	-0.30103
-0.8305393	coffee	-0.30103

\2-grams:
-0.264752	apple </s>	0
-0.53230226	you </s>	0
-0.264752	coffee </s>	0
-0.34788558	<s> I	-0.30103
-0.48963785	I like	-0.30103
-0.2411913	like apple	-0.30103
-0.7358622	<s> you	-0.30103
-0.6470869	love you	-0.30103
-0.5104463	I love	-0.30103
-0.5104463	you love	-0.30103
-0.39019543	love coffee	-0.30103

\3-grams:
-0.11250631	like apple </s>
-0.18924321	love you </s>
-0.11250631	love coffee </s>
-0.48333442	<s> I like
-0.1040629	I like apple
-0.44046512	I love you
-0.3118567	<s> I love
-0.18418588	<s> you love
-0.3433284	I love coffee
-0.15267509	you love coffee

\end\
